[0.0, 0.0, 0.0, 0.0, 0.0, 0.0, 0.0, 0.0, 0.0, 0.0, 0.0, 0.0, 0.0, 0.0, 0.0, 0.0, 0.0, 0.0, 0.0, 0.0, 1.9197547072373674e-06, 1.15185282434242e-05, 1.535803765789894e-05, 2.879633837323294e-06, 0.0003925446422420122, 0.002224419588816102, 0.003009508846653125, 0.0005233928427030995, 0.0, 3.2598134493384034e-08, 1.8305183418720182e-07, 1.704838374350556e-07, 4.261619608423694e-08, 2.506287641421948e-09, 0.0, 0.0004081032312680199, 0.0032648258501441593, 0.0044891355439482215, 0.0008162064625360398, 0.0, 0.0, 0.0, 0.0, 0.0, 0.0, 0.0, 0.0, 9.598773536186837e-07, 2.687656944749998e-05, 0.0001123156950245453, 0.00010852129013071736, 0.00015677744930783465, 0.0049722320456499726, 0.017402812048301516, 0.01583263349820849, 0.003925446320273239, 0.0, 1.6801676628187945e-07, 4.915139956265845e-07, 3.5009895806951124e-06, 0.004650173883323652, 0.03390802895941557, 0.06567371277573955, 0.0555269077444166, 0.025631977972775548, -0.016685749800250886, -0.06213915322716079, -0.09652210933132965, -0.10560266509688153, -0.11248979542928685, -0.11019408531848505, -0.08379341904426468, -0.08264556398886379, -0.08034985387806201, -0.04935488775017725, -0.008705028720739099, 0.027323424677500444, 0.07148108119261543, 0.014420186960854196, 0.005817916601553628, 0.022375046714252465, 0.029964240297521042, 0.0252537046661981, 0.007327499797843412, 0.0, 8.027498779079388e-08, 0.0009140324756362382, 0.004924757267915523, 0.04680213461254896, 0.15394197706102541, 0.16189738871397522, 0.010329615691420772, -0.09804283157115957, -0.14309739529080515, -0.16570444409523624, -0.23003220620774434, -0.2628594323656598, -0.2663027176826515, -0.2651546038919219, -0.24564099379161514, -0.23875386196723153, -0.23874903182785856, -0.21117429664141385, -0.11329873640875705, 0.11180128092361608, 0.19762044496510944, 0.10489762503109568, 0.02697680072349303, 0.0314035785013345, 0.029179151096030892, 0.014916696017926624, 0.00130848210675775, 0.0, 1.0035785717356081e-08, 0.013704522821988358, 0.09082050916494507, 0.1957955121994395, 0.16518874383625323, 0.04305929698610115, -0.053492789931775656, -0.12403971176952698, -0.19730648841500353, -0.2447056295945978, -0.30753989887847966, -0.3578833547588058, -0.32731197853304267, -0.32005940336717115, -0.30553067415366075, -0.2286382400481977, -0.20481897405837488, -0.18476274575505527, -0.08573536234910943, 0.004183871471965204, 0.1736383286851336, 0.17289647307829892, 0.05619003518434273, 0.03537065169756, 0.030364470357418637, 0.006298701255912921, 0.0003722355255376709, 0.0, 0.0, 0.05248493719542955, 0.2086261979019433, 0.2143596468291631, 0.057984510508467584, -0.05497174570944624, -0.08459360468747215, -0.0845708826808797, -0.09487183277189315, -0.17311416061194654, -0.23782966970763128, -0.29890801742765694, -0.29315734274750055, -0.27065028880564335, -0.23182936303957782, -0.16802869466322765, -0.023655464613053352, 0.1046203374151652, 0.03478229268868222, 0.03246861412050133, 0.017600037544565655, 0.029988457613629706, 0.07437625364147411, 0.045673892890486394, 0.04145464931482134, 0.020100718379034287, 0.0016750598649195232, 0.0, 0.0, 0.01101903106507505, 0.11359184300825435, 0.08129401889456167, 0.010218571392199735, -0.15567933342514512, -0.120995444872672, -0.03449336073738646, 0.016294902654057197, 0.04018600698053589, -0.05109588120074763, -0.15484136727178668, -0.20042464134196641, -0.16607813474158592, -0.12309178185125591, 0.0016759092497271187, 0.09651332977278457, 0.17612878465955462, 0.25252980882952414, 0.0547416139707883, -0.07301702513284515, -0.10935500240628125, -0.08764343801217124, 0.027435785894393626, 0.03852637689314905, 0.01488942102150687, 0.0011167065766130174, 0.0, 0.0, -0.020508481720409606, -0.10373220726809637, -0.013387974095020252, -0.10204154779308987, -0.06459583683973089, -0.11404624288012034, -0.07266396728053175, 0.04774890674967613, 0.13512372729589717, 0.11561264451314658, -0.048438842811983206, -0.0764815407523345, -0.058898687260114775, 0.028394135709454194, 0.06797054168987761, 0.1275597439105799, 0.2044998914541897, 0.17331943829538268, 0.16462659856575465, -0.021642985598926228, -0.19122646513133187, -0.21092319061547504, -0.0643452724998589, 0.012624859389492992, 0.0026056486787637057, 0.00018611776276883545, 0.0, 0.0, -0.07075891020358685, -0.22486764883431834, -0.27343776757829785, -0.14810090189363265, -0.0051855774444755955, 0.056139782478305124, 0.014840384266973186, -0.016662023972215004, 0.06405514365149466, 0.09272962856522993, -0.004253777328085725, -0.06974538110721473, 0.046006450974178784, 0.1739721938479766, 0.22929314306926588, 0.24400953602927916, 0.11519810589210427, 0.07478439700570066, 0.1054253749660016, 0.02742403530174422, -0.17313647438769444, -0.2600997359439748, -0.17134111493265253, -0.014549880194673844, 0.0, 0.0, 0.0, 0.0, -0.11134194037388592, -0.2790230856579319, -0.3813817086566572, -0.25299672941488854, 0.015571770469757893, 0.17849386327036953, 0.08028671505734145, -0.08037169286557796, -0.06167696389904032, 0.0622049004163212, 0.08659124504498877, 0.07438884297937197, 0.07003618196754079, 0.17182141303234807, 0.33389972175955557, 0.18201596436059514, -0.014189159722360931, -0.10181043845388868, -0.04366296385560033, 0.013855920403227112, -0.12489971107755289, -0.26670575685733156, -0.22383173580317273, -0.05854060782544518, 0.0, 0.0, 0.0, -0.0011478550554008858, -0.14003831675892775, -0.3251502875000229, -0.38374572518951394, -0.24899226197239058, -0.06118331941414674, 0.07251979830736041, 0.048439626221711767, -0.022585185501110307, -0.06102543086813257, 0.1246059662047851, 0.3039165106660693, 0.2847662924587346, 0.1702308624964141, 0.1678860150726138, 0.15969919840300512, 0.11137661621572756, -0.12500780768897696, -0.24302102892538424, -0.12418542690681601, -0.0007962639508731111, -0.08264557592470582, -0.24334527174498788, -0.25711953240979846, -0.09986338981987707, 0.0, 0.0, 0.0, -0.008034985387806202, -0.16529112797790158, -0.36405543321487294, -0.38294090079861176, -0.21322986489606374, -0.12127109942990505, -0.10104011093797513, -0.047301916554912046, 0.03781771628240705, 0.11116526054461599, 0.25251097649612664, 0.47126015855285114, 0.4474216589874163, 0.20803516639135386, 0.03258003956157215, -0.04875089513792829, -0.0720880637446944, -0.17952140122431848, -0.27246568684535916, -0.15783960933855187, -0.00882927543622115, -0.05739277216666743, -0.22497959085857375, -0.26859808296380727, -0.11937692576169213, 0.0, 0.0, 0.0, -0.024104956163418602, -0.1857850560768063, -0.39100402492126074, -0.3768234858115007, -0.18476453503126264, -0.15237887458236496, -0.2307423538795411, -0.161048744799468, 0.06983415403107322, 0.24011769909727665, 0.39761974999384647, 0.5231206778506893, 0.48273676261111126, 0.22562925131345377, 0.01833377132403279, -0.18809059121044888, -0.21913565477554045, -0.22259670355219544, -0.27028805388794075, -0.17957448864461542, -0.028440497035174605, -0.0631322003335598, -0.22957101108017733, -0.26400666274220375, -0.1136376504846877, 0.0, 0.0, 0.0, -0.03213994155122481, -0.19740668429512667, -0.41321811874486336, -0.3745059088288624, -0.18811297030691676, -0.19695699029764302, -0.2615162767176495, -0.16597412744812504, 0.07788546536052439, 0.33275154577311833, 0.48720421460344443, 0.5322686481287087, 0.37484170709226916, 0.26603116328576343, 0.11166926308142078, -0.14686301535161017, -0.2564932544829373, -0.2920822234125145, -0.27998737098115656, -0.19113282128716091, -0.04608958203284788, -0.09182925193548905, -0.2513802571327942, -0.24908454702199223, -0.0895326943212691, 0.0, 0.0, 0.0, -0.021809246052616832, -0.190184628165719, -0.41960286038387484, -0.39433127808806606, -0.2322499601692479, -0.23827394281414915, -0.23528751198039954, -0.07237383728319201, 0.19039568311957286, 0.44293878719223123, 0.5373126670460774, 0.5102324537726199, 0.4088790192883852, 0.2765287828067045, 0.20224499073637917, -0.028907077683673336, -0.23119603705564545, -0.3054282020142185, -0.31704481003908425, -0.1987066878962139, -0.04707072349008751, -0.12282216167467218, -0.2720416481300102, -0.22497959085857364, -0.05624489771464341, 0.0, 0.0, 0.0, -0.006887130332405315, -0.1556058988395429, -0.4092965501077776, -0.4589988937835907, -0.3160968978102175, -0.24366713851445362, -0.18136594258466768, 0.049624622483022914, 0.3509003248423206, 0.5001449082030129, 0.46538368252553, 0.4211448939909906, 0.36703782171463445, 0.3508832335958195, 0.23637635367120108, 0.061105540794838806, -0.1651560512631722, -0.3129465785309265, -0.3420613284599749, -0.20682920434071958, -0.030402627831271997, -0.1457785821696614, -0.282372343628618, -0.19743106952895237, -0.029844231440423034, 0.0, 0.0, 0.0, -0.0011478550554008858, -0.09182840443268003, -0.35905593149251575, -0.5159437343675295, -0.46750843158746197, -0.2726387790164941, -0.1207203739857026, 0.206555914865919, 0.4506863108526621, 0.4620651587653886, 0.2650070105314053, 0.21510785087561535, 0.30650579719272886, 0.37604312315108535, 0.3137878821655096, 0.1042349555543964, -0.09754485156858017, -0.31778419127368224, -0.3436533246359026, -0.18788717435570115, -0.017425628879184026, -0.1767698355338075, -0.2904073290164242, -0.17332611336553377, -0.004591420221603543, 0.0, 0.0, 0.0, 0.0, -0.022957101108500872, -0.2223383427630625, -0.48737542363286435, -0.5632983388350784, -0.4090437942737026, 0.0162847643062832, 0.2806119034080616, 0.4352532511794657, 0.3206845434947905, 0.10532582188460787, 0.04956147880649025, 0.21857684879317954, 0.3272006222170022, 0.3340698095506893, 0.17462386832404841, -0.10769867268552841, -0.29387784021720703, -0.28350925626391343, -0.09752458402430765, -0.035745066633207284, -0.21350104142574913, -0.2835201986840188, -0.14462973698051163, 0.0, 0.0, 0.0, 0.0, 0.0, -0.001147855055603806, -0.02433247707775453, -0.2515391155869744, -0.4886019023643404, -0.40559495466978024, -0.06924214393302634, 0.19338768772329648, 0.23389332928401882, 0.1184941937457206, 0.03619860774515685, 0.0010344624896213217, 0.08708790390819222, 0.2306500991052292, 0.21692377308569105, 0.08295184649391919, -0.060374311762733716, -0.18655879904561865, -0.1386126043482328, 0.011116295307342651, -0.0802195262679618, -0.25482381728730985, -0.261710952631402, -0.10101124487527796, 0.0, 0.0, 0.0, 0.0, 0.0, 0.0003722355255038504, 0.056566374483991516, 0.019164878658510298, -0.2071426495286215, -0.224143863954823, -0.1986877674438498, -0.13515692756787584, -0.14830060270961923, -0.1340458579545638, -0.10786465686937437, -0.09635229835168642, -0.061578818236576155, -0.07364480538573283, -0.08026336416213418, -0.03709504881336469, 0.04186159656622888, 0.034854113954593084, 0.029477555617145264, -0.030002041245596384, -0.18947529974864027, -0.27318942550426206, -0.20546605241091517, -0.037879216828229235, 0.0, 0.0, 0.0, 0.0, 0.0, 0.003164001967070212, 0.0632641453938173, 0.19454129977497875, 0.2221151163156853, 0.06415790791172245, -0.11438781677889881, -0.3746852092783858, -0.41940939060420657, -0.35341880002269976, -0.3504843098579331, -0.31280777273411836, -0.3051669366670574, -0.31602238445924785, -0.27688173855391063, -0.055679885456716025, 0.21388564808263605, 0.3270107161258264, 0.06619370225963407, -0.17137017674633637, -0.2577674881677664, -0.2376056205914545, -0.08608907653235248, -0.004591420221603543, 0.0, 0.0, 0.0, 0.0, 0.0009136286659757015, 0.02264151630081258, 0.1655832550571695, 0.2859402609542451, 0.37982356229724207, 0.3382491633246307, -0.0039209351862234095, -0.28518122845185173, -0.4318846933391428, -0.45367699691029495, -0.3919036457826208, -0.37919738604130004, -0.373308686409685, -0.3248419853325547, -0.20742536559591018, 0.007020423946614536, 0.2430868827573993, 0.22426557973050973, 0.06288310126588918, -0.1938668821226185, -0.22642721795588594, -0.09412354070470558, -0.009182517189392418, 2.7564278770709323e-08, 0.0, 0.0, 0.0, 0.0, 0.008222657993781409, 0.10614462049016363, 0.2560003800377248, 0.3094895081036436, 0.3253772451409275, 0.22970711150367906, 0.05021498927323012, -0.16124923580035824, -0.289018418959108, -0.3639838828057136, -0.36317243137234045, -0.3279138809207856, -0.30540931830780893, -0.254551308486684, -0.15311191543917813, -0.1302634865635558, -0.0985487807950503, 0.0430308608001619, 0.037290702944358024, -0.03310696024629448, -0.03944163415009548, -0.005075261292064921, 5.036745484465964e-07, 1.5536229852581644e-07, 0.0, 0.0, 0.0, 0.0, 0.02740885998636344, 0.153746274493873, 0.2506449061989726, 0.23545290268271515, 0.14808807747344693, 0.03121857813167258, -0.0009397608922460332, -0.04241859914169312, -0.18250895380982232, -0.2664516823039584, -0.2903046401106577, -0.2956892281239031, -0.29001983747012366, -0.2722294080892935, -0.29515083388026003, -0.3340663690798514, -0.3069486248423564, -0.11840956042516321, 0.1084467456277957, 0.1916899175063678, 0.07905461818457413, 0.005781655421936434, 0.0001898847400036563, 9.021036688595787e-08, 0.0, 0.0, 0.0, 0.0, 0.005481772036635247, 0.04556018196378207, 0.10161877681357716, 0.014980647031133226, -0.03265033744772288, -0.06371806583592243, -0.019992750152063928, -0.0015081134731214326, -0.0241049561638245, -0.11363765048526744, -0.1779175335878375, -0.20776176502829002, -0.22827268189878594, -0.26006299407597167, -0.2938891512959113, -0.2735294384177484, -0.2047087979775164, -0.03767362781636542, 0.16716889240835317, 0.23385212160103208, 0.12286623089003668, 0.012699990632760387, 0.001042600710349377, 1.2529217623049716e-08, 0.0, 0.0, 0.0, 0.0, 1.9503972582810514e-11, 7.650512205076259e-09, 5.037396831260868e-08, -0.022237717173267033, -0.07654021693291174, -0.08607013248508598, -0.05985508174493082, -0.016062543389209368, -0.004015635847302342, -0.006988779924204306, -0.029159370087929397, -0.06860046772517762, -0.10673195168630376, -0.14569148715459926, -0.1454243652488962, -0.09789835439720856, -0.026007077975560886, 0.00514154312995002, 0.06676312124015102, 0.1533033478894036, 0.0630007934747083, 0.01023577903278476, 0.001232084527800723, 0.0, 0.0, 0.0, 0.0, 0.0, 1.7730884166191385e-12, 1.9503972582810514e-11, 4.0781033582240286e-11, -0.0036476984038489274, -0.044522653964321854, -0.08432163365187392, -0.08542256632889653, -0.07045615622994131, -0.0573140752751336, -0.05877430649233448, -0.06607546257833866, -0.07374167646864328, -0.08177294816324797, -0.08542352620625013, -0.07191638744714227, -0.025554046301014998, -0.0018156902479648863, 0.0001324630747993782, 0.006622891594637582, 0.026835056583997003, 0.011268850881149015, 0.002179841841875144, 0.00018955146636106054, 0.0, 0.0, 0.0, 0.0, 0.0, 0.0, 0.0, 0.0, 0.0, -0.00584092486880342, -0.04745751455902772, -0.07958260133744673, -0.08761387303205137, -0.09053433546645316, -0.09016927766215274, -0.08688375742345095, -0.08286812157614871, -0.07702719670734509, -0.06315500014393703, -0.024458872888114356, -0.002190346825801286, 0.0, 1.823766971875503e-05, 9.406798065463087e-05, 2.39969338404671e-05, 9.598773536186837e-07, 0.0, 0.0, 0.0, 0.0, 0.0, 0.0]