[0.0, 0.0, 0.0, 0.0, 0.0, 0.0, 0.0, 0.0, 0.0, 0.0, 0.0, 0.0, 0.0, 0.0, 0.0, 0.0, 0.0, 0.0, 0.0, 0.0, 2.7476371395485145e-05, 0.00016485822837291106, 0.00021981097116388116, 4.1696864170017644e-05, 2.7732660379431374e-06, 1.989518654701127e-06, 3.0144457874026033e-07, 4.618689789513522e-13, 0.0, 0.0004137246543606602, 0.00229492163952827, 0.0013948552586900906, 0.0002269623990791428, 1.2067222737458493e-07, 0.0, 9.075278677843858e-05, 0.0007260222942275087, 0.0009982806545628263, 0.00018150557355687717, 0.0, 0.0, 0.0, 0.0, 0.0, 0.0, 0.0, 0.0, 1.3738185697742573e-05, 0.0004597601000439138, 0.0020579135115113183, 0.001965718478636973, 0.00045072488575122557, 1.0851913615526033e-05, 7.7169285857805e-06, 1.7483771248996698e-06, 3.4640173421351446e-12, 0.0, 0.00236904735313275, 0.006882833494739533, 0.0072358581330654904, 0.008775139311781695, 0.02152542113476704, 0.023056614494012074, 0.010788479249430733, -0.016779238845979292, -0.054470016252124484, -0.07472970716501878, -0.08527622941067674, -0.09019607883022625, -0.09607843178515629, -0.09411764740724746, -0.0715686276710376, -0.0705882353858082, -0.06862745099414562, -0.042115648188004756, -0.009223103164709645, 0.002737134559586615, 0.00829241738457683, 0.01068373196689919, 0.014344102963876124, 0.008721324922879407, 0.0012531381765476012, 1.5675202847451183e-06, 6.466165705318935e-12, 0.0, 0.0018029684158323881, 0.007253883120333669, 0.012940987182771537, 0.05537689730005178, 0.1433512066657265, 0.11810031381742717, -0.03323575243117513, -0.14134720948188145, -0.18497667223475311, -0.19741738194657954, -0.21659042388464614, -0.22775240381511766, -0.23004321045274098, -0.228265147577869, -0.21052970641082486, -0.2040232313498724, -0.20153736271048778, -0.15212559695706337, -0.03750264601134994, 0.06805154697039408, 0.032280734516574164, 0.032349356530005764, 0.03281545817496831, 0.02489070026655394, 0.006638307781299245, 2.4116670166080474e-07, 1.154672447378381e-12, 0.0, 0.0002628185336076373, 0.002409054505965169, 0.02057434047002542, 0.10672593428307611, 0.18744778511629737, 0.09325832891777948, -0.0039304027555868435, -0.08506609717567588, -0.15367118080075742, -0.06291212366958418, -0.15633077883113736, -0.2370494628817795, -0.2516105036494922, -0.2604034474554495, -0.2504970570243689, -0.22113006759941845, -0.179514559860163, -0.04580673915925869, 0.035255420226864634, 0.08338423779640401, 0.040559773258669836, 0.022777171275569046, 0.03436137674313194, 0.05871674184480863, 0.08889487529903631, 0.025144926125903216, 0.0020954105103572276, 0.0, 0.0, 0.00018643473652970035, 0.002641124405285731, -0.03339424840357758, -0.050693869030512456, 0.016866195967311523, 0.06552906779409125, 0.09421150986273494, 0.18318657281810055, 0.20817721033005318, 0.09885587211005302, -0.066190479902495, -0.16269894057249634, -0.17311597001292078, -0.16492762646855727, -0.12027415591899333, 0.03439121760883848, 0.15658765138304004, 0.12092640364894941, 0.004162114318756569, -0.1413682268966642, -0.0739373371324306, 0.10329980992015732, 0.19910939256953064, 0.225394842534368, 0.11315216755929018, 0.009429347296607531, 0.0, 0.0, -0.0012307883082403376, -0.054766740762553376, -0.1813370398438879, -0.19195423370361264, -0.10933711645122902, 0.09613413443290658, 0.17306346302406259, 0.1921113759891986, 0.31717976248948054, 0.21780999706122856, 0.12248287324684114, -0.01076212627131721, -0.08048667329109986, -0.07054470528992815, 0.06342405947453769, 0.18795029891614348, 0.26395287094390424, 0.20385617250961946, -0.04032356745977173, -0.1033574554707248, -0.04099833635527085, 0.10259667846328065, 0.2315048526148416, 0.21687498782197284, 0.08381642041428888, 0.0062862315310716725, 0.0, 0.0, -0.019063326416584286, -0.14370427060761, -0.21433888614084037, -0.1863985864395651, -0.055876629976542344, -0.03143385063075568, -0.016776530018935896, 0.04006978415644183, 0.1250301716652336, 0.24263653237236066, 0.166604050472935, 0.1022467880083499, -0.018191976688548966, 0.0261222237359253, 0.15183604274616214, 0.20625404323119864, 0.20525099547165426, 0.17760009668242038, 0.19285390481715248, 0.0790354112042314, 0.018059380535719854, 0.012780784219870854, 0.0872406839658329, 0.07654979672635444, 0.014667873572500602, 0.0010477052551786138, 0.0, 0.0, -0.060693560938711824, -0.19686139501114794, -0.21682959115755984, -0.10086495584329311, -0.034341623074158056, -0.11623230894217308, -0.17626377445955024, -0.10177008260917401, 0.020321677618482307, 0.067669393484692, 0.1454138203583053, 0.09032476399594827, 0.05338656112587869, 0.0951269707517643, 0.17362867260319587, 0.18653499050505704, 0.16247426242056087, 0.21351371173167963, 0.24618278742618993, 0.20143647024326244, 0.004641487231046261, -0.13772290271881618, -0.12590277913089157, -0.010649687528858453, 0.0, 0.0, 0.0, 0.0, -0.09509803921568627, -0.22162322175726223, -0.18712263235259818, -0.052143599200854526, -0.056730711674536555, -0.1493788499602189, -0.18196822250162714, -0.15613229576280077, -0.16363947827116868, -0.1145796072682407, -0.0132410470514076, 0.11580065727993491, 0.07250363740528257, 0.23611497084730942, 0.3194639375968773, 0.16040890918041492, 0.09595578514312023, 0.10598095024987018, 0.10699632556766724, 0.08136067059918056, -0.07940588739642748, -0.22428080805445763, -0.19117647058823528, -0.05, 0.0, 0.0, 0.0, -0.000980392156862745, -0.11962488603706273, -0.23421227233587527, -0.18076025761749737, -0.0858390223709989, -0.10589697054527197, -0.1678115548463216, -0.18198714639447416, -0.2794247702516052, -0.27717599744027194, -0.15873563975292107, 0.03778080544532571, 0.2368921432706242, 0.2512662487409481, 0.306473159421042, 0.2884007604944643, 0.10836598476873865, -0.032858291858994804, -0.09472463207216729, -0.08944875301833292, -0.023419900472932798, -0.07362879823207923, -0.2081853177363679, -0.2196078431372549, -0.08529411764705883, 0.0, 0.0, 0.0, -0.006862745098039216, -0.14129919349558306, -0.24149177532976734, -0.1955038965422899, -0.11773802156122742, -0.15694043585545164, -0.19316692665615784, -0.3025431152353121, -0.3164190662163528, -0.24791216772467295, -0.005952563257844322, 0.35025548590237193, 0.41549895607699844, 0.34075973756943434, 0.31482615716974127, 0.07663836210378985, -0.09234415419897515, -0.16588444016468248, -0.16048034639657435, -0.12604446975201233, -0.04810151247700534, -0.05370766192360454, -0.1932840455186309, -0.22941176470588234, -0.10196078431372549, 0.0, 0.0, 0.0, -0.020588235294117647, -0.15812614389606053, -0.24759446718897732, -0.20008716368646867, -0.1376127644679908, -0.226789306996352, -0.3394226634856243, -0.3443722607014635, -0.22920257104988284, 0.015689792468829157, 0.39427151081702594, 0.5883265558193346, 0.5707295826664954, 0.3871237342486398, 0.30024859368771895, -0.029500841962398005, -0.3408305003161655, -0.23979638683536056, -0.15375137177660209, -0.1285478721954932, -0.06862601531637538, -0.06477919426986416, -0.19776920550763294, -0.22549019607843138, -0.09705882352941177, 0.0, 0.0, 0.0, -0.027450980392156862, -0.16312710433965089, -0.25721564569717387, -0.20192252479118994, -0.17483743200279833, -0.3650821733594859, -0.42502613340063394, -0.2336813500066719, 0.06667934304579508, 0.32569560389424956, 0.5419338168732377, 0.5816287643731335, 0.4137143978921126, 0.37779080559594547, 0.3973226984053702, 0.09235532168942105, -0.3541675349074697, -0.4113097787662904, -0.20763682830662059, -0.12077676430811873, -0.08309188133557101, -0.10433439661327508, -0.2165979390866969, -0.21274509803921568, -0.07647058823529412, 0.0, 0.0, 0.0, -0.018627450980392157, -0.15533511644809136, -0.26232124948466046, -0.22250218586252846, -0.2808906130021398, -0.4587006590301467, -0.34422572152075964, 0.010042061038962899, 0.2890380996024154, 0.4928922083674873, 0.5294578621198902, 0.4008066067006873, 0.1954459360134631, 0.2619218726796438, 0.47746120185438434, 0.31838438858048007, -0.21437544190405233, -0.46108059004503577, -0.3274909989241084, -0.13935837196352802, -0.08871177078851464, -0.13881919216972474, -0.2341041000641073, -0.19215686274509805, -0.04803921568627451, 0.0, 0.0, 0.0, -0.0058823529411764705, -0.13084226537710872, -0.249029875571731, -0.2838783051167842, -0.3960319171753862, -0.425110100104567, -0.1522153893980048, 0.17462613620027903, 0.40216143536150445, 0.4762227171968961, 0.40118449073460277, 0.24558032191471552, 0.10912667401815751, 0.15401361920595918, 0.41943650587288356, 0.45055561991706544, 0.01209667756237709, -0.41405525323970166, -0.3958408122528054, -0.21159288853220773, -0.08582164478070523, -0.15377276566613954, -0.2423841663728125, -0.16862745098039217, -0.025490196078431372, 0.0, 0.0, 0.0, -0.000980392156862745, -0.07886090038661334, -0.21808054932795387, -0.3392381238389841, -0.46358370141133226, -0.3311663535109003, -0.08355572934497325, 0.2119124758492134, 0.3767341954535016, 0.40302528039334934, 0.29015656008970586, 0.09647081958934321, 0.05928740309500742, 0.10637040444059191, 0.32662111531072296, 0.4320046838397923, 0.16323904120043187, -0.2604811003217631, -0.41655272585855446, -0.2598996457801501, -0.08381273446824604, -0.16797840981416284, -0.24856255052625859, -0.1480392156862745, -0.00392156862745098, 0.0, 0.0, 0.0, 0.0, -0.019948705809653244, -0.1507692695896671, -0.322562313116462, -0.41880341292003326, -0.33943450452253326, -0.11053196884237661, 0.14295005423284346, 0.33428618964569273, 0.3239503344608042, 0.13234443358682393, 0.05025605727896946, 0.03821082992678877, 0.07796222321656021, 0.23324446764430978, 0.33930652139743195, 0.18368073331710466, -0.16794378997753667, -0.36555611061657234, -0.2562313744626371, -0.08726100675544347, -0.18608713285975284, -0.2422172475343271, -0.12352941176470589, 0.0, 0.0, 0.0, 0.0, 0.0, -0.001123552515247624, -0.01777916144274333, -0.14312642967841613, -0.2955604564416347, -0.3487899007992792, -0.14583058558390952, 0.05972421865548582, 0.1879148098474727, 0.10543517677586868, 0.018744966961333032, 0.02644228646982081, 0.02738979384875688, 0.03185853397247415, 0.13604822000955744, 0.17812835839227775, 0.11389496640907146, -0.13421457573276824, -0.25148735736514133, -0.21073854294014777, -0.10475439101725581, -0.2180697521572157, -0.2235294117647059, -0.08627450980392157, 0.0, 0.0, 0.0, 0.0, 0.0, 0.0020715504506264113, 0.09049427954770982, 0.03956631471870167, -0.19100087029769797, -0.18161423044971894, -0.0986075279788988, -0.04023668376277202, -0.0507780242004383, -0.202792222555634, -0.16871940152192424, -0.11756784843069124, -0.10227350686799219, -0.13472234191954618, -0.05399455316947459, 0.03762136545854933, 0.058277331559847725, -0.0683821740923968, -0.14002254484443782, -0.16864849665264836, -0.181889392954344, -0.2333735869002824, -0.17549019598297355, -0.03235294117647059, 0.0, 0.0, 0.0, 0.0, 0.0, 0.017810989338036445, 0.15627302621254657, 0.10939748293630026, 0.007868760223137252, 0.03747449280600568, 0.07793134148202985, -0.10129913913276285, -0.26683119408209627, -0.29133609606158767, -0.29335748325793737, -0.2545756145021137, -0.24406031633349629, -0.25247858375683996, -0.15617275986984563, 0.030002118843359158, 0.06763549773189799, -0.026380235650226177, -0.12387578974588175, -0.19638033930796103, -0.2253485161540536, -0.20294116215186167, -0.07352940976008421, -0.00392156862745098, 0.0, 0.0, 0.0, 0.0, 3.612464779673552e-07, 0.049285114902764424, 0.18593086716948862, 0.1388769000789807, 0.11872876855606238, 0.18735822473731442, 0.13192662778068717, -0.14695213229645365, -0.28051954487695224, -0.26807175264531125, -0.21329762608540362, -0.20306675157154336, -0.1841819046357614, -0.1637533819234048, -0.10469657373790989, 0.017727998273571372, -0.12217132651084932, -0.24203845932660092, -0.20512386441776662, -0.19501946448822066, -0.19391041025537678, -0.08039213500282279, -0.007843124940797096, 1.0500399484565093e-09, 0.0, 0.0, 0.0, 0.0, 3.2512183017062e-06, 0.04666229585712478, 0.16469110023257746, 0.1000411722547577, 0.026642288789177244, 0.13445971431742396, 0.07802846670195235, -0.1575746511565008, -0.2334509987472505, -0.24137834128931915, -0.207460899233677, -0.16675726068513844, -0.12664764545985585, -0.08596658349316141, -0.0881821004324753, -0.2222133444787261, -0.38666029484451025, -0.41072470286648016, -0.24703688769934598, -0.1453431419490026, -0.048171826370924896, -0.004564016323462751, 1.9187093603614404e-08, 5.918406982209426e-09, 0.0, 0.0, 0.0, 0.0, 0.00016101919535326553, 0.010619741997648341, 0.05462558338952855, -0.07649505255064475, -0.17935464334487466, -0.09717454639837632, 0.0012256724613118285, -0.036249072485732545, -0.1566458748525627, -0.22750488975807687, -0.2424767052468016, -0.23530327926094846, -0.21927316564284338, -0.2006442126536438, -0.30899300498892457, -0.4578052429483085, -0.4582521609034259, -0.33418456941154445, -0.10325484285477991, -0.00966124889925672, 0.007116119878811836, 0.002778490849535382, 7.5107358391439e-05, 3.4364943767667645e-09, 0.0, 0.0, 0.0, 0.0, 0.0008657128346997122, 0.005611647399032894, 0.008672021640414867, -0.11755336627093989, -0.2582541830014459, -0.22312174670499918, -0.060794515315302854, -0.0021719116821941804, -0.020874556010887398, -0.09746785312479712, -0.15245502840814956, -0.17796567596635013, -0.19992617285290196, -0.28639479562914777, -0.41959999216134664, -0.42855697058455294, -0.3166781508781961, -0.07736268906986843, 0.005665505098738476, 0.009032276108096335, 0.009088634724318442, 0.00555698031074886, 0.0005632050218813688, 4.772908856620503e-10, 0.0, 0.0, 0.0, 0.0, 0.0004129999527891727, 0.002815909055391625, 0.005444092195929905, -0.06625920071628692, -0.23487053881459696, -0.2648418749797916, -0.18466716420699672, -0.04960013675407533, -0.012400034188518833, -0.01901680552198125, -0.05671567277661489, -0.10672580419501573, -0.18088353846299823, -0.2883505573616115, -0.31829164880613475, -0.2458827804939423, -0.07113832735600772, 0.002040664721171046, 0.004696208790558063, 0.005405914816311494, 0.007817104361447618, 0.004918657128341447, 0.000901115258739395, 0.0, 0.0, 0.0, 0.0, 0.0, 3.754545025356112e-05, 0.0004129999527891727, 0.0008635453558319071, -0.011081361995091521, -0.13732157912356, -0.26030455065901215, -0.26376880727915775, -0.21756423621674004, -0.17698230614522484, -0.18149140948650416, -0.2040369261929017, -0.22770971873461798, -0.25250978711165795, -0.2637825454648556, -0.2220733395580204, -0.07890930847239293, -0.005498997319622076, 0.001895869626288476, 0.0032584787357107553, 0.0021230033455332136, 0.0024876201486582934, 0.0012765885710087955, 0.0001501855629610027, 0.0, 0.0, 0.0, 0.0, 0.0, 0.0, 0.0, 0.0, 0.0, -0.018036413365118506, -0.14654585859158678, -0.2457461320997368, -0.2705462004767741, -0.27956440715933467, -0.2784371313240142, -0.26829164880613476, -0.25589161461761667, -0.23785520125249943, -0.19501871951034275, -0.0755274809664331, -0.006763655011919379, 0.0, 0.0002610255282571088, 0.0013463421983787728, 0.00034345464244356437, 1.3738185697742573e-05, 0.0, 0.0, 0.0, 0.0, 0.0, 0.0]